num_bin= 2 bins= 50 500 ranges= 500 5000 step= 50
FANN_FLO_2.1
num_layers=3
learning_rate=0.100000
connection_rate=1.000000
network_type=0
learning_momentum=0.000000
training_algorithm=1
train_error_function=1
train_stop_function=0
cascade_output_change_fraction=0.010000
quickprop_decay=-0.000100
quickprop_mu=1.750000
rprop_increase_factor=1.200000
rprop_decrease_factor=0.500000
rprop_delta_min=0.000000
rprop_delta_max=50.000000
rprop_delta_zero=0.100000
cascade_output_stagnation_epochs=12
cascade_candidate_change_fraction=0.010000
cascade_candidate_stagnation_epochs=12
cascade_max_out_epochs=150
cascade_min_out_epochs=50
cascade_max_cand_epochs=150
cascade_min_cand_epochs=50
cascade_num_candidate_groups=2
bit_fail_limit=3.49999994039535522461e-01
cascade_candidate_limit=1.00000000000000000000e+03
cascade_weight_multiplier=4.00000005960464477539e-01
cascade_activation_functions_count=10
cascade_activation_functions=3 5 7 8 10 11 14 15 16 17 
cascade_activation_steepnesses_count=4
cascade_activation_steepnesses=2.50000000000000000000e-01 5.00000000000000000000e-01 7.50000000000000000000e-01 1.00000000000000000000e+00 
layer_sizes=81 13 3 
scale_included=0
neurons (num_inputs, activation_function, activation_steepness)=(0, 0, 0.00000000000000000000e+00) (0, 0, 0.00000000000000000000e+00) (0, 0, 0.00000000000000000000e+00) (0, 0, 0.00000000000000000000e+00) (0, 0, 0.00000000000000000000e+00) (0, 0, 0.00000000000000000000e+00) (0, 0, 0.00000000000000000000e+00) (0, 0, 0.00000000000000000000e+00) (0, 0, 0.00000000000000000000e+00) (0, 0, 0.00000000000000000000e+00) (0, 0, 0.00000000000000000000e+00) (0, 0, 0.00000000000000000000e+00) (0, 0, 0.00000000000000000000e+00) (0, 0, 0.00000000000000000000e+00) (0, 0, 0.00000000000000000000e+00) (0, 0, 0.00000000000000000000e+00) (0, 0, 0.00000000000000000000e+00) (0, 0, 0.00000000000000000000e+00) (0, 0, 0.00000000000000000000e+00) (0, 0, 0.00000000000000000000e+00) (0, 0, 0.00000000000000000000e+00) (0, 0, 0.00000000000000000000e+00) (0, 0, 0.00000000000000000000e+00) (0, 0, 0.00000000000000000000e+00) (0, 0, 0.00000000000000000000e+00) (0, 0, 0.00000000000000000000e+00) (0, 0, 0.00000000000000000000e+00) (0, 0, 0.00000000000000000000e+00) (0, 0, 0.00000000000000000000e+00) (0, 0, 0.00000000000000000000e+00) (0, 0, 0.00000000000000000000e+00) (0, 0, 0.00000000000000000000e+00) (0, 0, 0.00000000000000000000e+00) (0, 0, 0.00000000000000000000e+00) (0, 0, 0.00000000000000000000e+00) (0, 0, 0.00000000000000000000e+00) (0, 0, 0.00000000000000000000e+00) (0, 0, 0.00000000000000000000e+00) (0, 0, 0.00000000000000000000e+00) (0, 0, 0.00000000000000000000e+00) (0, 0, 0.00000000000000000000e+00) (0, 0, 0.00000000000000000000e+00) (0, 0, 0.00000000000000000000e+00) (0, 0, 0.00000000000000000000e+00) (0, 0, 0.00000000000000000000e+00) (0, 0, 0.00000000000000000000e+00) (0, 0, 0.00000000000000000000e+00) (0, 0, 0.00000000000000000000e+00) (0, 0, 0.00000000000000000000e+00) (0, 0, 0.00000000000000000000e+00) (0, 0, 0.00000000000000000000e+00) (0, 0, 0.00000000000000000000e+00) (0, 0, 0.00000000000000000000e+00) (0, 0, 0.00000000000000000000e+00) (0, 0, 0.00000000000000000000e+00) (0, 0, 0.00000000000000000000e+00) (0, 0, 0.00000000000000000000e+00) (0, 0, 0.00000000000000000000e+00) (0, 0, 0.00000000000000000000e+00) (0, 0, 0.00000000000000000000e+00) (0, 0, 0.00000000000000000000e+00) (0, 0, 0.00000000000000000000e+00) (0, 0, 0.00000000000000000000e+00) (0, 0, 0.00000000000000000000e+00) (0, 0, 0.00000000000000000000e+00) (0, 0, 0.00000000000000000000e+00) (0, 0, 0.00000000000000000000e+00) (0, 0, 0.00000000000000000000e+00) (0, 0, 0.00000000000000000000e+00) (0, 0, 0.00000000000000000000e+00) (0, 0, 0.00000000000000000000e+00) (0, 0, 0.00000000000000000000e+00) (0, 0, 0.00000000000000000000e+00) (0, 0, 0.00000000000000000000e+00) (0, 0, 0.00000000000000000000e+00) (0, 0, 0.00000000000000000000e+00) (0, 0, 0.00000000000000000000e+00) (0, 0, 0.00000000000000000000e+00) (0, 0, 0.00000000000000000000e+00) (0, 0, 0.00000000000000000000e+00) (0, 0, 0.00000000000000000000e+00) (81, 6, 1.00000000000000000000e+00) (81, 6, 1.00000000000000000000e+00) (81, 6, 1.00000000000000000000e+00) (81, 6, 1.00000000000000000000e+00) (81, 6, 1.00000000000000000000e+00) (81, 6, 1.00000000000000000000e+00) (81, 6, 1.00000000000000000000e+00) (81, 6, 1.00000000000000000000e+00) (81, 6, 1.00000000000000000000e+00) (81, 6, 1.00000000000000000000e+00) (81, 6, 1.00000000000000000000e+00) (81, 6, 1.00000000000000000000e+00) (0, 6, 1.00000000000000000000e+00) (13, 6, 1.00000000000000000000e+00) (13, 6, 1.00000000000000000000e+00) (0, 6, 1.00000000000000000000e+00) 
connections (connected_to_neuron, weight)=(0, 1.50000000000000000000e+03) (1, 1.50000000000000000000e+03) (2, 1.50000000000000000000e+03) (3, 1.50000000000000000000e+03) (4, 1.50000000000000000000e+03) (5, 1.50000000000000000000e+03) (6, 1.50000000000000000000e+03) (7, 1.50000000000000000000e+03) (8, 1.50000000000000000000e+03) (9, 1.50000000000000000000e+03) (10, 1.50000000000000000000e+03) (11, 1.50000000000000000000e+03) (12, 1.50000000000000000000e+03) (13, 1.50000000000000000000e+03) (14, 1.50000000000000000000e+03) (15, 1.50000000000000000000e+03) (16, 1.50000000000000000000e+03) (17, 1.50000000000000000000e+03) (18, 1.50000000000000000000e+03) (19, 1.50000000000000000000e+03) (20, 1.50000000000000000000e+03) (21, 1.50000000000000000000e+03) (22, 1.50000000000000000000e+03) (23, 1.50000000000000000000e+03) (24, 1.50000000000000000000e+03) (25, 1.50000000000000000000e+03) (26, 1.50000000000000000000e+03) (27, 1.50000000000000000000e+03) (28, 1.50000000000000000000e+03) (29, 1.50000000000000000000e+03) (30, 1.50000000000000000000e+03) (31, 1.50000000000000000000e+03) (32, 1.50000000000000000000e+03) (33, 4.41923189163208007812e+00) (34, 7.01873550415039062500e+01) (35, -1.34283599853515625000e+01) (36, 7.01931335449218750000e+02) (37, 1.29120129394531250000e+03) (38, 9.39926433563232421875e+00) (39, 1.50000000000000000000e+03) (40, 1.50000000000000000000e+03) (41, 1.50000000000000000000e+03) (42, 1.50000000000000000000e+03) (43, 1.50000000000000000000e+03) (44, 1.50000000000000000000e+03) (45, 1.50000000000000000000e+03) (46, 1.50000000000000000000e+03) (47, 1.50000000000000000000e+03) (48, 1.50000000000000000000e+03) (49, 1.50000000000000000000e+03) (50, 1.50000000000000000000e+03) (51, 1.50000000000000000000e+03) (52, 1.51323258876800537109e-01) (53, -7.16830641031265258789e-02) (54, 7.87907600402832031250e-01) (55, 1.50000000000000000000e+03) (56, 1.39733505249023437500e+01) (57, 8.86950075626373291016e-01) (58, 1.21707387268543243408e-01) (59, 1.15873765945434570312e+01) (60, 7.03389286994934082031e-01) (61, 9.39688682556152343750e-01) (62, 4.04957628250122070312e+00) (63, 1.31609094238281250000e+03) (64, 1.50000000000000000000e+03) (65, 1.50000000000000000000e+03) (66, 1.50000000000000000000e+03) (67, 1.50000000000000000000e+03) (68, 1.50000000000000000000e+03) (69, 1.50000000000000000000e+03) (70, 1.50000000000000000000e+03) (71, 1.50000000000000000000e+03) (72, 1.50000000000000000000e+03) (73, 1.50000000000000000000e+03) (74, 1.50000000000000000000e+03) (75, 1.50000000000000000000e+03) (76, 1.50000000000000000000e+03) (77, 1.50000000000000000000e+03) (78, 1.50000000000000000000e+03) (79, 1.50000000000000000000e+03) (80, -2.76694625616073608398e-01) (0, -1.16861987304687500000e+03) (1, -1.33173864746093750000e+03) (2, -1.19828979492187500000e+03) (3, -1.07278503417968750000e+03) (4, -9.95879821777343750000e+02) (5, -1.10297412109375000000e+03) (6, -1.28552795410156250000e+03) (7, -1.12085729980468750000e+03) (8, -1.36960302734375000000e+03) (9, -5.64391967773437500000e+02) (10, -3.71793365478515625000e+02) (11, 1.32676831054687500000e+03) (12, 1.50000000000000000000e+03) (13, 1.50000000000000000000e+03) (14, 1.50000000000000000000e+03) (15, 1.50000000000000000000e+03) (16, 1.50000000000000000000e+03) (17, 1.50000000000000000000e+03) (18, 1.50000000000000000000e+03) (19, 1.50000000000000000000e+03) (20, 1.49463317871093750000e+03) (21, 1.50000000000000000000e+03) (22, 1.50000000000000000000e+03) (23, 1.50000000000000000000e+03) (24, 1.50000000000000000000e+03) (25, 1.50000000000000000000e+03) (26, 1.50000000000000000000e+03) (27, 1.50000000000000000000e+03) (28, 1.50000000000000000000e+03) (29, 8.87862731933593750000e+02) (30, -1.11702685546875000000e+03) (31, -6.10180175781250000000e+02) (32, -1.35649438476562500000e+03) (33, -1.30921411132812500000e+03) (34, -1.25835290527343750000e+03) (35, -1.31620959472656250000e+03) (36, -1.26620959472656250000e+03) (37, -1.43000000000000000000e+03) (38, -1.50000000000000000000e+03) (39, -1.39873864746093750000e+03) (40, -5.35311035156250000000e+02) (41, -1.02734765625000000000e+03) (42, -9.60670166015625000000e+02) (43, 3.60141906738281250000e+02) (44, -7.30441474914550781250e+00) (45, -9.65882690429687500000e+02) (46, -6.76320617675781250000e+02) (47, -6.67120727539062500000e+02) (48, -1.25938879394531250000e+03) (49, -5.02542358398437500000e+02) (50, 1.50000000000000000000e+03) (51, 1.50000000000000000000e+03) (52, 3.44695138931274414062e+00) (53, -3.33366185426712036133e-01) (54, -5.87981641292572021484e-02) (55, -3.47117447853088378906e+00) (56, -6.56222677230834960938e+00) (57, -1.05577941894531250000e+03) (58, -8.68136901855468750000e+02) (59, -1.49220336914062500000e+03) (60, -1.45693078613281250000e+03) (61, -7.96600280761718750000e+02) (62, -4.14273925781250000000e+02) (63, -4.14285186767578125000e+02) (64, -2.77043731689453125000e+02) (65, -4.13195068359375000000e+02) (66, -8.71588516235351562500e+00) (67, -5.37358427047729492188e+00) (68, 2.40613922476768493652e-01) (69, 1.50000000000000000000e+03) (70, 1.50000000000000000000e+03) (71, -5.92486321926116943359e-01) (72, -1.33173864746093750000e+03) (73, -6.51757873535156250000e+02) (74, -4.72607299804687500000e+02) (75, 5.38968688964843750000e+02) (76, -4.54454895019531250000e+02) (77, -7.62325805664062500000e+02) (78, -9.02371398925781250000e+02) (79, -1.12517932128906250000e+03) (80, 1.27758349609375000000e+03) (0, 1.23150402832031250000e+03) (1, 1.44163842773437500000e+03) (2, 1.38150402832031250000e+03) (3, 1.29046411132812500000e+03) (4, 1.37092541503906250000e+03) (5, 1.34046411132812500000e+03) (6, 1.34046411132812500000e+03) (7, 1.34046411132812500000e+03) (8, 1.41447827148437500000e+03) (9, 8.24162414550781250000e+02) (10, 7.25059326171875000000e+02) (11, -1.35238403320312500000e+03) (12, -1.50000000000000000000e+03) (13, -1.50000000000000000000e+03) (14, -1.50000000000000000000e+03) (15, -1.50000000000000000000e+03) (16, -1.50000000000000000000e+03) (17, -1.50000000000000000000e+03) (18, -1.50000000000000000000e+03) (19, -1.50000000000000000000e+03) (20, -8.92835266113281250000e+02) (21, -1.50000000000000000000e+03) (22, -1.50000000000000000000e+03) (23, -1.50000000000000000000e+03) (24, -1.50000000000000000000e+03) (25, -1.50000000000000000000e+03) (26, -1.50000000000000000000e+03) (27, -1.50000000000000000000e+03) (28, -1.50000000000000000000e+03) (29, -6.86269897460937500000e+02) (30, 9.56748046875000000000e+02) (31, 6.53102233886718750000e+02) (32, 1.36771301269531250000e+03) (33, 1.48925048828125000000e+03) (34, 1.49032531738281250000e+03) (35, 1.49032531738281250000e+03) (36, 1.50000000000000000000e+03) (37, 1.50000000000000000000e+03) (38, 1.50000000000000000000e+03) (39, 1.50000000000000000000e+03) (40, 1.34983483886718750000e+03) (41, 5.79949096679687500000e+02) (42, 1.13287194824218750000e+03) (43, -1.31828002929687500000e+03) (44, -6.32937133789062500000e+02) (45, -7.09754028320312500000e+02) (46, -1.31828002929687500000e+03) (47, -7.30864990234375000000e+02) (48, 1.15186437988281250000e+03) (49, 1.46830291748046875000e+02) (50, -1.50000000000000000000e+03) (51, -1.49552001953125000000e+03) (52, 5.97230076789855957031e-01) (53, 4.84235078096389770508e-01) (54, -4.46791410446166992188e+00) (55, 2.31586944580078125000e+02) (56, 4.59851503372192382812e+00) (57, 4.37820983886718750000e+02) (58, 1.49998327636718750000e+03) (59, 1.49991040039062500000e+03) (60, 1.49863977050781250000e+03) (61, 1.26271875000000000000e+03) (62, 1.23514880371093750000e+03) (63, 6.19069274902343750000e+02) (64, 4.28046073913574218750e+01) (65, 7.35220050811767578125e+00) (66, 2.11275100708007812500e+01) (67, 4.37185801565647125244e-02) (68, 5.37788093090057373047e-01) (69, -1.49552001953125000000e+03) (70, -1.50000000000000000000e+03) (71, -4.90137672424316406250e+00) (72, 1.32098132324218750000e+03) (73, -1.47433120727539062500e+02) (74, -1.24266516113281250000e+03) (75, -8.51940307617187500000e+02) (76, -8.38010009765625000000e+02) (77, -3.15961971282958984375e+01) (78, 3.89896636962890625000e+02) (79, 1.22471838378906250000e+03) (80, -2.99623146057128906250e+01) (0, 9.04714390635490417480e-02) (1, 8.15380513668060302734e-02) (2, 1.43822520971298217773e-01) (3, 1.39840543270111083984e-01) (4, 1.59356594085693359375e-01) (5, 1.61801531910896301270e-01) (6, 2.36631572246551513672e-01) (7, 2.79498070478439331055e-01) (8, 2.88713306188583374023e-01) (9, 2.89466083049774169922e-01) (10, 1.12268790602684020996e-01) (11, 8.38402733206748962402e-02) (12, 2.44443833827972412109e-01) (13, 2.31308743357658386230e-01) (14, 2.19437032938003540039e-01) (15, 1.36421278119087219238e-01) (16, 6.37927949428558349609e-02) (17, 7.38270282745361328125e-02) (18, 9.73338782787322998047e-02) (19, 1.48471236228942871094e-01) (20, 6.04858249425888061523e-02) (21, 1.81420873850584030151e-02) (22, 9.95359569787979125977e-03) (23, -3.32831218838691711426e-02) (24, 4.01243130909278988838e-04) (25, 6.25529140233993530273e-02) (26, 1.69485270977020263672e-01) (27, 1.63337841629981994629e-01) (28, 2.03100234270095825195e-01) (29, 8.13149288296699523926e-02) (30, 1.23995997011661529541e-01) (31, 2.76642054319381713867e-01) (32, 3.33989262580871582031e-01) (33, 3.45998495817184448242e-01) (34, 2.87970185279846191406e-01) (35, 2.33103454113006591797e-01) (36, 2.26432621479034423828e-01) (37, 1.92033484578132629395e-01) (38, 1.96972876787185668945e-01) (39, 1.63268193602561950684e-01) (40, -4.24769282341003417969e-01) (41, -4.62006151676177978516e-01) (42, -4.06164556741714477539e-01) (43, -3.76933872699737548828e-01) (44, -4.87230002880096435547e-01) (45, -4.90018397569656372070e-01) (46, -5.90454697608947753906e-01) (47, -4.92813378572463989258e-01) (48, -2.38632727414369583130e-02) (49, 5.76729595661163330078e-01) (50, 6.48132860660552978516e-01) (51, 9.74499940872192382812e-01) (52, 1.04696977138519287109e+00) (53, 4.61842149496078491211e-01) (54, -7.50001445412635803223e-02) (55, -1.75950706005096435547e-01) (56, -5.07986359298229217529e-02) (57, -1.54291577637195587158e-02) (58, 2.70116776227951049805e-02) (59, -1.06222098693251609802e-02) (60, 1.07952050864696502686e-01) (61, 1.51104936376214027405e-02) (62, -1.51037359610199928284e-02) (63, -1.68186396360397338867e-01) (64, -1.77594035863876342773e-01) (65, -2.53711789846420288086e-01) (66, -1.22087299823760986328e-01) (67, 3.06104034185409545898e-01) (68, 8.64494740962982177734e-01) (69, 9.61338639259338378906e-01) (70, 9.21698331832885742188e-01) (71, 7.90533363819122314453e-01) (72, -2.72528193891048431396e-02) (73, -4.55841451883316040039e-01) (74, -6.16404592990875244141e-01) (75, -5.03496170043945312500e-01) (76, -4.36349719762802124023e-01) (77, -3.67350012063980102539e-01) (78, -3.55214893817901611328e-01) (79, -5.73761165142059326172e-01) (80, -5.27535963058471679688e+00) (0, 8.68712738156318664551e-03) (1, 2.05419976264238357544e-02) (2, -2.34531536698341369629e-02) (3, -3.22958454489707946777e-02) (4, -1.88253633677959442139e-02) (5, -2.39682197570800781250e-03) (6, -2.44194734841585159302e-02) (7, -7.89257287979125976562e-02) (8, -1.06292687356472015381e-01) (9, -1.24626375734806060791e-01) (10, 1.56519822776317596436e-02) (11, -1.02247111499309539795e-01) (12, -4.29146558046340942383e-01) (13, -6.24760806560516357422e-01) (14, -5.99030494689941406250e-01) (15, -4.21378821134567260742e-01) (16, -2.60790586471557617188e-01) (17, -1.68498903512954711914e-01) (18, -1.37181684374809265137e-01) (19, -1.37358367443084716797e-01) (20, -9.43583920598030090332e-02) (21, -1.14801362156867980957e-01) (22, -1.45298317074775695801e-01) (23, -1.76212266087532043457e-01) (24, -2.63014882802963256836e-01) (25, -4.29153591394424438477e-01) (26, -6.06870949268341064453e-01) (27, -6.23681724071502685547e-01) (28, -4.32459592819213867188e-01) (29, -8.75923410058021545410e-02) (30, 3.01374960690736770630e-02) (31, -1.22106581926345825195e-01) (32, -1.08493193984031677246e-01) (33, -4.69183549284934997559e-02) (34, -1.03190345689654350281e-02) (35, 7.76948360726237297058e-03) (36, 3.76327801495790481567e-03) (37, 4.56269877031445503235e-03) (38, 4.29278984665870666504e-03) (39, 3.13716172240674495697e-03) (40, 4.37533915042877197266e-01) (41, 3.45044046640396118164e-01) (42, 3.39908272027969360352e-01) (43, 3.29288959503173828125e-01) (44, 3.16319197416305541992e-01) (45, 3.64044368267059326172e-01) (46, 3.87108117341995239258e-01) (47, 3.34337681531906127930e-01) (48, 1.45439743995666503906e-01) (49, -7.28281363844871520996e-02) (50, -7.82597064971923828125e-01) (51, -1.06163907051086425781e+00) (52, -6.54300987720489501953e-01) (53, -1.74488782882690429688e-01) (54, 5.99404573440551757812e-02) (55, 1.46550938487052917480e-01) (56, 1.41737714409828186035e-01) (57, 1.20736211538314819336e-01) (58, 1.15673400461673736572e-01) (59, 1.07854798436164855957e-01) (60, 9.35969427227973937988e-02) (61, 9.01877209544181823730e-02) (62, 8.00150111317634582520e-02) (63, 1.41351938247680664062e-01) (64, 1.71462029218673706055e-01) (65, 1.80968329310417175293e-01) (66, 5.98657950758934020996e-02) (67, -2.04608693718910217285e-01) (68, -6.67079091072082519531e-01) (69, -1.00890743732452392578e+00) (70, -7.33945012092590332031e-01) (71, -1.75557166337966918945e-01) (72, 1.39815315604209899902e-01) (73, 3.39206576347351074219e-01) (74, 3.90072822570800781250e-01) (75, 3.86548250913619995117e-01) (76, 3.77030670642852783203e-01) (77, 3.58885854482650756836e-01) (78, 3.85980516672134399414e-01) (79, 4.90187764167785644531e-01) (80, 2.23761010169982910156e+00) (0, 1.50000000000000000000e+03) (1, 8.66950759887695312500e+01) (2, -1.69587656855583190918e-01) (3, 6.48155069351196289062e+00) (4, 2.39651322364807128906e+00) (5, 1.45308351516723632812e+00) (6, 1.56753611564636230469e+00) (7, 3.22496104240417480469e+00) (8, 4.66606330871582031250e+01) (9, 1.50000000000000000000e+03) (10, 1.50000000000000000000e+03) (11, 1.50000000000000000000e+03) (12, 1.50000000000000000000e+03) (13, 1.50000000000000000000e+03) (14, 1.50000000000000000000e+03) (15, 1.50000000000000000000e+03) (16, 1.50000000000000000000e+03) (17, 1.50000000000000000000e+03) (18, 1.50000000000000000000e+03) (19, 1.50000000000000000000e+03) (20, 1.49799121093750000000e+03) (21, 1.50000000000000000000e+03) (22, 1.50000000000000000000e+03) (23, 1.50000000000000000000e+03) (24, 1.50000000000000000000e+03) (25, 1.50000000000000000000e+03) (26, 1.50000000000000000000e+03) (27, 1.50000000000000000000e+03) (28, 1.50000000000000000000e+03) (29, 1.50000000000000000000e+03) (30, -1.14615535736083984375e+00) (31, 5.86553871631622314453e-01) (32, -1.78836524486541748047e+00) (33, -1.41057043457031250000e+03) (34, -1.44968969726562500000e+03) (35, -1.44968969726562500000e+03) (36, -1.44968969726562500000e+03) (37, -1.44968969726562500000e+03) (38, -1.44968969726562500000e+03) (39, -1.62545272827148437500e+02) (40, 1.50000000000000000000e+03) (41, 1.50000000000000000000e+03) (42, 1.50000000000000000000e+03) (43, 1.50000000000000000000e+03) (44, 1.50000000000000000000e+03) (45, 1.50000000000000000000e+03) (46, 1.50000000000000000000e+03) (47, 1.50000000000000000000e+03) (48, 1.50000000000000000000e+03) (49, 1.50000000000000000000e+03) (50, 1.50000000000000000000e+03) (51, 1.50000000000000000000e+03) (52, 1.49901074218750000000e+03) (53, 2.77770817279815673828e-01) (54, 1.24827134609222412109e+00) (55, 1.15016341209411621094e+00) (56, 1.87061262130737304688e+00) (57, -1.21510505676269531250e+01) (58, -1.33102661132812500000e+02) (59, -3.63319458007812500000e+02) (60, -1.90282440185546875000e+02) (61, -2.46060600280761718750e+01) (62, 2.52958663940429687500e+02) (63, 4.30527162551879882812e+00) (64, 1.24259109497070312500e+01) (65, 2.75860309600830078125e+01) (66, 5.05796957015991210938e+00) (67, 1.11209559440612792969e+00) (68, 1.50000000000000000000e+03) (69, 1.50000000000000000000e+03) (70, 1.50000000000000000000e+03) (71, 1.50000000000000000000e+03) (72, 1.50000000000000000000e+03) (73, 1.50000000000000000000e+03) (74, 1.50000000000000000000e+03) (75, 1.50000000000000000000e+03) (76, 1.50000000000000000000e+03) (77, 1.50000000000000000000e+03) (78, 1.50000000000000000000e+03) (79, 1.50000000000000000000e+03) (80, 2.62369203567504882812e+00) (0, 1.50000000000000000000e+03) (1, 7.23601135253906250000e+02) (2, 8.74207198619842529297e-01) (3, 1.67034072875976562500e+01) (4, 7.70802259445190429688e+00) (5, 3.78328514099121093750e+01) (6, 3.57084393501281738281e+00) (7, 1.33807477951049804688e+01) (8, 4.53425502777099609375e+00) (9, 7.99426078796386718750e+00) (10, 7.71644226074218750000e+02) (11, 1.49248803710937500000e+03) (12, 1.50000000000000000000e+03) (13, 1.50000000000000000000e+03) (14, 1.50000000000000000000e+03) (15, 1.50000000000000000000e+03) (16, 1.50000000000000000000e+03) (17, 1.50000000000000000000e+03) (18, 1.50000000000000000000e+03) (19, 1.50000000000000000000e+03) (20, 1.50000000000000000000e+03) (21, 1.50000000000000000000e+03) (22, 1.50000000000000000000e+03) (23, 1.50000000000000000000e+03) (24, 1.50000000000000000000e+03) (25, 1.50000000000000000000e+03) (26, 1.50000000000000000000e+03) (27, 1.50000000000000000000e+03) (28, 1.50000000000000000000e+03) (29, 1.50000000000000000000e+03) (30, -2.26062107086181640625e+00) (31, 9.87255990505218505859e-01) (32, -6.92190456390380859375e+00) (33, -1.30921411132812500000e+03) (34, -1.44968969726562500000e+03) (35, -1.44968969726562500000e+03) (36, -1.44968969726562500000e+03) (37, -1.44968969726562500000e+03) (38, -1.44968969726562500000e+03) (39, -1.43065405273437500000e+03) (40, 1.50000000000000000000e+03) (41, 1.50000000000000000000e+03) (42, 1.50000000000000000000e+03) (43, 1.50000000000000000000e+03) (44, 1.50000000000000000000e+03) (45, 1.50000000000000000000e+03) (46, 1.50000000000000000000e+03) (47, 1.50000000000000000000e+03) (48, 1.50000000000000000000e+03) (49, 1.50000000000000000000e+03) (50, 1.50000000000000000000e+03) (51, 1.50000000000000000000e+03) (52, 1.49467321777343750000e+03) (53, 3.43601465225219726562e-01) (54, 7.40290641784667968750e-01) (55, 1.43509829044342041016e+00) (56, 1.81067621707916259766e+00) (57, -3.11541461944580078125e+01) (58, -5.69836608886718750000e+02) (59, -6.47177001953125000000e+02) (60, -6.52593811035156250000e+02) (61, -7.16670288085937500000e+02) (62, 2.08144409179687500000e+02) (63, 1.15539538860321044922e+00) (64, 1.23832025527954101562e+01) (65, 1.97196254730224609375e+01) (66, 1.21697926521301269531e+00) (67, 8.70737493038177490234e-01) (68, 1.50000000000000000000e+03) (69, 1.50000000000000000000e+03) (70, 1.50000000000000000000e+03) (71, 1.50000000000000000000e+03) (72, 1.50000000000000000000e+03) (73, 1.50000000000000000000e+03) (74, 1.50000000000000000000e+03) (75, 1.50000000000000000000e+03) (76, 1.50000000000000000000e+03) (77, 1.50000000000000000000e+03) (78, 1.50000000000000000000e+03) (79, 1.50000000000000000000e+03) (80, 6.60106750488281250000e+02) (0, -1.44837792968750000000e+03) (1, -1.38842272949218750000e+03) (2, -1.38842272949218750000e+03) (3, -1.30921411132812500000e+03) (4, -1.30921411132812500000e+03) (5, -1.30921411132812500000e+03) (6, -1.30921411132812500000e+03) (7, -1.30921411132812500000e+03) (8, -4.30052520751953125000e+02) (9, -2.54290512084960937500e+02) (10, -4.09317901611328125000e+02) (11, 1.49999987792968750000e+03) (12, 1.50000000000000000000e+03) (13, 1.50000000000000000000e+03) (14, 1.50000000000000000000e+03) (15, 1.50000000000000000000e+03) (16, 1.50000000000000000000e+03) (17, 1.50000000000000000000e+03) (18, 1.50000000000000000000e+03) (19, 1.50000000000000000000e+03) (20, 1.49439233398437500000e+03) (21, 1.50000000000000000000e+03) (22, 1.50000000000000000000e+03) (23, 1.50000000000000000000e+03) (24, 1.50000000000000000000e+03) (25, 1.50000000000000000000e+03) (26, 1.50000000000000000000e+03) (27, 1.50000000000000000000e+03) (28, 1.50000000000000000000e+03) (29, 4.89478271484375000000e+02) (30, -1.42413281250000000000e+03) (31, -1.22366333007812500000e+03) (32, -1.43993371582031250000e+03) (33, -1.30921411132812500000e+03) (34, -1.45485192871093750000e+03) (35, -1.44968969726562500000e+03) (36, -1.44968969726562500000e+03) (37, -1.45485192871093750000e+03) (38, -1.50000000000000000000e+03) (39, -1.44968969726562500000e+03) (40, -1.42687438964843750000e+03) (41, -1.25596228027343750000e+03) (42, -1.47665417480468750000e+03) (43, -1.23851611328125000000e+03) (44, -6.82363098144531250000e+02) (45, -7.27664855957031250000e+02) (46, -6.92250061035156250000e+02) (47, -7.80283935546875000000e+02) (48, -1.45511230468750000000e+03) (49, -1.04576550292968750000e+03) (50, 1.50000000000000000000e+03) (51, 1.50000000000000000000e+03) (52, 1.49999389648437500000e+03) (53, 5.43658137321472167969e-02) (54, -4.05229300260543823242e-01) (55, 2.08069667220115661621e-01) (56, -5.34938171386718750000e+02) (57, -1.45816784667968750000e+03) (58, -1.38990173339843750000e+03) (59, -1.41773095703125000000e+03) (60, -1.36463281250000000000e+03) (61, -1.47013415527343750000e+03) (62, -3.13346740722656250000e+02) (63, -7.65744873046875000000e+02) (64, -1.15405895996093750000e+03) (65, -6.11656738281250000000e+02) (66, -1.68432144165039062500e+02) (67, -3.41488313674926757812e+00) (68, 3.33144617080688476562e+00) (69, 1.50000000000000000000e+03) (70, 1.50000000000000000000e+03) (71, 1.44481982421875000000e+03) (72, -1.44603186035156250000e+03) (73, -1.45095849609375000000e+03) (74, -4.00265930175781250000e+02) (75, -8.84550537109375000000e+02) (76, -6.41494384765625000000e+02) (77, -7.93128662109375000000e+02) (78, -1.23737805175781250000e+03) (79, -1.49086291503906250000e+03) (80, 2.34469619750976562500e+02) (0, 1.50000000000000000000e+03) (1, 1.50000000000000000000e+03) (2, 1.50000000000000000000e+03) (3, 1.50000000000000000000e+03) (4, 1.50000000000000000000e+03) (5, 1.50000000000000000000e+03) (6, 1.50000000000000000000e+03) (7, 1.50000000000000000000e+03) (8, 1.50000000000000000000e+03) (9, 1.50000000000000000000e+03) (10, 1.50000000000000000000e+03) (11, 1.50000000000000000000e+03) (12, 1.50000000000000000000e+03) (13, 1.50000000000000000000e+03) (14, 1.50000000000000000000e+03) (15, 1.50000000000000000000e+03) (16, 1.50000000000000000000e+03) (17, 1.50000000000000000000e+03) (18, 1.50000000000000000000e+03) (19, 1.50000000000000000000e+03) (20, 1.49999755859375000000e+03) (21, 1.50000000000000000000e+03) (22, 1.50000000000000000000e+03) (23, 1.50000000000000000000e+03) (24, 1.50000000000000000000e+03) (25, 1.50000000000000000000e+03) (26, 1.50000000000000000000e+03) (27, 1.50000000000000000000e+03) (28, 1.50000000000000000000e+03) (29, 1.50000000000000000000e+03) (30, 1.50000000000000000000e+03) (31, 1.50000000000000000000e+03) (32, 1.28375842285156250000e+03) (33, 5.30244708061218261719e-01) (34, -2.34430252075195312500e+02) (35, -1.44968969726562500000e+03) (36, 3.98729515075683593750e+01) (37, 3.49308044433593750000e+02) (38, 1.94671592712402343750e+01) (39, 1.45187658691406250000e+03) (40, 1.50000000000000000000e+03) (41, 1.50000000000000000000e+03) (42, 1.50000000000000000000e+03) (43, 1.50000000000000000000e+03) (44, 1.50000000000000000000e+03) (45, 1.50000000000000000000e+03) (46, 1.50000000000000000000e+03) (47, 1.50000000000000000000e+03) (48, 1.50000000000000000000e+03) (49, 1.50000000000000000000e+03) (50, 1.50000000000000000000e+03) (51, 1.50000000000000000000e+03) (52, 1.80085718631744384766e+00) (53, 4.34485882520675659180e-01) (54, 9.70420300960540771484e-01) (55, 1.50000000000000000000e+03) (56, 1.90457973480224609375e+01) (57, 8.58978778123855590820e-02) (58, -4.04840290546417236328e-01) (59, -2.97349393367767333984e-02) (60, 1.18865489959716796875e+00) (61, 2.37377953529357910156e+00) (62, 1.39330148696899414062e+01) (63, 1.49628259277343750000e+03) (64, 6.77038757324218750000e+02) (65, 1.50000000000000000000e+03) (66, 1.50000000000000000000e+03) (67, 1.50000000000000000000e+03) (68, 1.50000000000000000000e+03) (69, 1.50000000000000000000e+03) (70, 1.50000000000000000000e+03) (71, 1.50000000000000000000e+03) (72, 1.50000000000000000000e+03) (73, 1.50000000000000000000e+03) (74, 1.50000000000000000000e+03) (75, 1.50000000000000000000e+03) (76, 1.50000000000000000000e+03) (77, 1.50000000000000000000e+03) (78, 1.50000000000000000000e+03) (79, 1.50000000000000000000e+03) (80, -3.04131239652633666992e-01) (0, -4.34823006391525268555e-01) (1, -4.48579043149948120117e-01) (2, -4.84174132347106933594e-01) (3, -4.64019596576690673828e-01) (4, -5.03817200660705566406e-01) (5, -4.64695215225219726562e-01) (6, -4.40308123826980590820e-01) (7, -3.84565562009811401367e-01) (8, -2.61537909507751464844e-01) (9, -2.23493620753288269043e-01) (10, -2.14755788445472717285e-01) (11, 7.14225769042968750000e-02) (12, 6.27230465412139892578e-01) (13, 1.02042329311370849609e+00) (14, 1.00166225433349609375e+00) (15, 8.14772486686706542969e-01) (16, 5.93111515045166015625e-01) (17, 4.81048226356506347656e-01) (18, 4.62991952896118164062e-01) (19, 4.68040972948074340820e-01) (20, -2.61871010065078735352e-01) (21, -1.88274323940277099609e-01) (22, -1.09256193041801452637e-01) (23, -3.05890329182147979736e-02) (24, 3.45095917582511901855e-02) (25, 1.59425780177116394043e-01) (26, 2.83396869897842407227e-01) (27, 4.02611196041107177734e-01) (28, 2.82702863216400146484e-01) (29, 1.32666200399398803711e-01) (30, 1.26561820507049560547e-01) (31, 2.21186771988868713379e-01) (32, 1.84721931815147399902e-01) (33, 1.53477683663368225098e-01) (34, 1.12963072955608367920e-01) (35, 9.39785167574882507324e-02) (36, 8.05534198880195617676e-02) (37, 1.05764284729957580566e-01) (38, 9.06625092029571533203e-02) (39, 1.00988455116748809814e-01) (40, -2.12250113487243652344e-01) (41, -9.62108969688415527344e-02) (42, -1.04627251625061035156e-01) (43, -1.73726737499237060547e-01) (44, -9.12395268678665161133e-02) (45, -1.47396057844161987305e-01) (46, -1.61136835813522338867e-01) (47, -3.07216852903366088867e-01) (48, -7.07386255264282226562e-01) (49, -8.47048521041870117188e-01) (50, 1.96276456117630004883e-02) (51, 6.38827919960021972656e-01) (52, 7.47753202915191650391e-01) (53, 3.33906799554824829102e-01) (54, 1.11978456377983093262e-01) (55, 1.26497643068432807922e-02) (56, -2.88554877042770385742e-02) (57, -2.69292630255222320557e-02) (58, -2.20890752971172332764e-02) (59, -3.81883122026920318604e-02) (60, -2.96177584677934646606e-02) (61, -3.56443226337432861328e-02) (62, -3.82927432656288146973e-02) (63, -9.20974463224411010742e-03) (64, -1.38607233762741088867e-01) (65, -1.07760958373546600342e-01) (66, -2.96303838491439819336e-01) (67, -6.55970335006713867188e-01) (68, -6.31855607032775878906e-01) (69, 5.76636254787445068359e-01) (70, 7.85783231258392333984e-01) (71, 3.76518607139587402344e-01) (72, 3.67677301168441772461e-01) (73, 6.05850294232368469238e-02) (74, 7.18972906470298767090e-02) (75, -1.59387439489364624023e-02) (76, -4.88093532621860504150e-02) (77, -8.14587548375129699707e-02) (78, -1.25628337264060974121e-01) (79, -8.66860225796699523926e-02) (80, -3.77408218383789062500e+00) (0, 1.50000000000000000000e+03) (1, 3.69829673767089843750e+01) (2, 1.54123771190643310547e+00) (3, 4.27471017837524414062e+00) (4, 3.02671966552734375000e+02) (5, 1.24174535274505615234e+00) (6, 7.28677034378051757812e-01) (7, 9.44503903388977050781e-01) (8, 1.50000000000000000000e+03) (9, 1.50000000000000000000e+03) (10, 1.50000000000000000000e+03) (11, 1.50000000000000000000e+03) (12, 1.50000000000000000000e+03) (13, 1.50000000000000000000e+03) (14, 1.50000000000000000000e+03) (15, 1.50000000000000000000e+03) (16, 1.50000000000000000000e+03) (17, 1.50000000000000000000e+03) (18, 1.50000000000000000000e+03) (19, 1.50000000000000000000e+03) (20, 1.49799121093750000000e+03) (21, 1.50000000000000000000e+03) (22, 1.50000000000000000000e+03) (23, 1.50000000000000000000e+03) (24, 1.50000000000000000000e+03) (25, 1.50000000000000000000e+03) (26, 1.50000000000000000000e+03) (27, 1.50000000000000000000e+03) (28, 1.50000000000000000000e+03) (29, 1.50000000000000000000e+03) (30, 5.69251835346221923828e-01) (31, 2.57141566276550292969e+00) (32, 2.70922374725341796875e+00) (33, -1.17579719543457031250e+02) (34, -1.44968969726562500000e+03) (35, -1.44968969726562500000e+03) (36, -1.44968969726562500000e+03) (37, -1.44968969726562500000e+03) (38, -1.44968969726562500000e+03) (39, 5.36980529785156250000e+02) (40, 1.50000000000000000000e+03) (41, 1.50000000000000000000e+03) (42, 1.50000000000000000000e+03) (43, 1.50000000000000000000e+03) (44, 1.50000000000000000000e+03) (45, 1.50000000000000000000e+03) (46, 1.50000000000000000000e+03) (47, 1.50000000000000000000e+03) (48, 1.50000000000000000000e+03) (49, 1.50000000000000000000e+03) (50, 1.50000000000000000000e+03) (51, 1.50000000000000000000e+03) (52, 4.07883453369140625000e+02) (53, 5.26828587055206298828e-01) (54, 6.16079747676849365234e-01) (55, 1.58227074146270751953e+00) (56, 2.03628182411193847656e+00) (57, -7.58564662933349609375e+00) (58, -3.61327095031738281250e+01) (59, -6.26281890869140625000e+01) (60, -8.05224456787109375000e+01) (61, 4.68830841064453125000e+02) (62, 5.96060657501220703125e+00) (63, 6.58647489547729492188e+00) (64, 2.16665697097778320312e+00) (65, 1.44275415039062500000e+03) (66, 1.12998344421386718750e+02) (67, 1.10747802257537841797e+00) (68, 1.50000000000000000000e+03) (69, 1.50000000000000000000e+03) (70, 1.50000000000000000000e+03) (71, 1.50000000000000000000e+03) (72, 1.50000000000000000000e+03) (73, 1.50000000000000000000e+03) (74, 1.50000000000000000000e+03) (75, 1.50000000000000000000e+03) (76, 1.50000000000000000000e+03) (77, 1.50000000000000000000e+03) (78, 1.50000000000000000000e+03) (79, 1.50000000000000000000e+03) (80, 1.23730480670928955078e+00) (0, 6.76901936531066894531e-02) (1, 9.48210805654525756836e-02) (2, 1.45569875836372375488e-01) (3, 1.34042233228683471680e-01) (4, 1.59628897905349731445e-01) (5, 1.38067945837974548340e-01) (6, 1.42864659428596496582e-01) (7, 1.90868511795997619629e-01) (8, 2.44201853871345520020e-01) (9, 2.35379904508590698242e-01) (10, 1.15515761077404022217e-01) (11, 1.11814506351947784424e-01) (12, 2.51760423183441162109e-01) (13, 3.42260211706161499023e-01) (14, 2.99517899751663208008e-01) (15, 1.13261230289936065674e-01) (16, 2.52638310194015502930e-02) (17, -7.54270926117897033691e-02) (18, -1.29170611500740051270e-01) (19, -2.01644390821456909180e-01) (20, 4.93771940469741821289e-01) (21, 4.83765542507171630859e-01) (22, 4.84248995780944824219e-01) (23, 5.11693418025970458984e-01) (24, 6.61478042602539062500e-01) (25, 8.70054781436920166016e-01) (26, 1.09944856166839599609e+00) (27, 1.06925106048583984375e+00) (28, 6.58920168876647949219e-01) (29, 6.43006861209869384766e-02) (30, -2.84247964620590209961e-01) (31, -2.08108827471733093262e-01) (32, -3.19061517715454101562e-01) (33, -4.12680804729461669922e-01) (34, -5.09605646133422851562e-01) (35, -5.55092871189117431641e-01) (36, -5.53598344326019287109e-01) (37, -5.43822765350341796875e-01) (38, -5.60885488986968994141e-01) (39, -5.52509486675262451172e-01) (40, -1.99407979846000671387e-01) (41, -8.74322950839996337891e-02) (42, -6.29213526844978332520e-02) (43, -4.30004037916660308838e-02) (44, 8.07917024940252304077e-03) (45, -5.35060241818428039551e-02) (46, -4.18180301785469055176e-02) (47, 1.40373595058917999268e-02) (48, 3.15088748931884765625e-01) (49, 5.51060080528259277344e-01) (50, 1.07271170616149902344e+00) (51, 6.12152516841888427734e-01) (52, -5.86302638053894042969e-01) (53, -6.33571743965148925781e-01) (54, -3.23833912611007690430e-01) (55, -1.79934576153755187988e-01) (56, -1.48515179753303527832e-01) (57, -6.69345930218696594238e-02) (58, -5.19598908722400665283e-02) (59, 6.03254372254014015198e-03) (60, -4.30000759661197662354e-02) (61, 7.12792808189988136292e-03) (62, -6.56644767150282859802e-03) (63, -1.20734423398971557617e-03) (64, -3.04399151355028152466e-02) (65, 4.43022586405277252197e-02) (66, 1.06609374284744262695e-01) (67, 4.07259374856948852539e-01) (68, 9.38200533390045166016e-01) (69, 7.16873168945312500000e-01) (70, 3.91631051898002624512e-02) (71, -8.71296703815460205078e-01) (72, -7.92673945426940917969e-01) (73, -4.33994948863983154297e-01) (74, -2.27658137679100036621e-01) (75, -2.39995300769805908203e-01) (76, -1.98805063962936401367e-01) (77, -1.99836373329162597656e-01) (78, -2.43276819586753845215e-01) (79, -2.01655909419059753418e-01) (80, -4.49791383743286132812e+00) (81, 4.12289410829544067383e-01) (82, 5.81846805289387702942e-03) (83, -2.15321406722068786621e-03) (84, 7.01378941535949707031e-01) (85, -4.20728623867034912109e-02) (86, 3.86106759309768676758e-01) (87, 6.44046902656555175781e-01) (88, 6.71315379440784454346e-03) (89, 4.71618324518203735352e-01) (90, 6.07838630676269531250e-01) (91, 4.54397141933441162109e-01) (92, 6.58129692077636718750e-01) (93, -3.28068077564239501953e-01) (81, 1.40430659055709838867e-01) (82, -6.26879744231700897217e-03) (83, -4.15837094187736511230e-02) (84, -5.59545531868934631348e-02) (85, 9.35755729675292968750e-01) (86, 3.33986937999725341797e-01) (87, 6.20941519737243652344e-01) (88, 2.14610490947961807251e-02) (89, 2.01669037342071533203e-01) (90, -1.12858310341835021973e-01) (91, 3.44726085662841796875e-01) (92, -1.16008758544921875000e-01) (93, -6.75280392169952392578e-01) 
